SVM-light Version V6.01
4 # kernel type
3 # kernel parameter -d 
1 # kernel parameter -g 
1 # kernel parameter -s 
1 # kernel parameter -r 
empty# kernel parameter -u 
2553 # highest feature index 
812 # number of training documents 
17 # number of support vectors plus 1 
0.92800143 # threshold b, each following line is a SV (starting with alpha*y)
-0.2480968941215087320006915660997 55:1 56:1 57:1 58:1 59:1 60:1 61:1 62:1 63:1 64:1 65:1 66:1 67:1 68:1 70:1 79:1 122:1 204:1 215:4 226:1 230:1 236:1 239:2 241:14 243:1 342:1 346:1 378:1 386:1 416:1 417:1 455:1 522:5 545:1 561:1 599:2 603:1 612:2 630:1 632:6 727:1 734:1 756:1 761:1 762:1 788:1 792:1 796:1 803:1 804:1 834:1 836:8 846:1 856:1 871:1 886:15 890:1 897:1 900:1 909:8 928:1 942:1 958:1 960:1 963:1 986:1 994:1 997:1 1005:1 1008:1 1035:1 1036:3 1039:1 1042:1 1046:1 1048:1 1053:1 1055:1 1063:10 1066:3 1070:1 1073:1 1079:1 1082:1 1097:1 1099:1 1103:1 1111:1 1112:1 1133:1 1154:1 1163:1 1172:2 1189:1 1190:1 1205:1 1208:7 1223:1 1225:10 1230:1 1234:1 1238:1 1258:1 1264:51 1268:2 1276:2 1285:1 1287:1 1306:1 1319:1 1356:1 1387:1 1418:1 1420:1 1465:1 1483:1 1485:1 1494:1 1523:2 1556:1 1572:2 1575:1 1582:1 1592:1 1602:1 1604:12 1606:1 1659:1 1662:1 1713:5 1793:1 1811:1 1841:1 1892:1 1934:1 1961:1 1980:1 2003:2 2016:6 2023:1 2057:1 2161:1 2164:1 2167:1 2170:1 2171:1 2183:2 2264:1 2321:1 2339:1 2346:1 2350:3 2368:2 2369:1 2403:1 2466:1 2467:1 2474:2 2480:1 #919782
1 215:7 236:1 239:2 241:21 243:1 290:1 302:2 385:1 416:3 443:1 522:7 599:4 603:2 632:9 652:3 660:1 667:1 792:3 794:1 796:1 799:1 803:1 806:3 834:3 836:14 854:1 859:2 871:4 886:13 907:1 908:1 909:11 928:3 932:1 938:2 942:1 951:3 955:1 956:1 960:1 962:1 963:1 964:1 967:6 971:2 981:1 986:3 991:1 997:1 1006:1 1007:1 1014:1 1034:1 1035:3 1036:6 1042:3 1048:3 1052:1 1053:3 1063:10 1066:6 1070:3 1079:1 1082:1 1093:2 1118:2 1133:2 1134:2 1141:1 1143:4 1145:4 1149:1 1163:1 1172:3 1175:1 1186:1 1189:1 1208:15 1225:10 1230:3 1254:1 1264:72 1274:1 1285:1 1314:1 1418:1 1433:1 1465:3 1475:1 1523:1 1572:4 1575:3 1582:3 1604:10 1606:4 1662:1 1685:1 1688:1 1713:7 1780:1 1892:1 1980:3 2003:6 2016:8 2023:4 2054:1 2127:1 2181:2 2183:7 2258:4 2265:1 2275:2 2341:2 2350:5 2403:3 2466:1 2467:1 #154997
-0.023682589903143091980552981112851 201:1 215:6 236:1 239:6 241:13 378:1 385:1 402:1 416:2 522:5 535:2 538:1 539:1 540:1 542:1 544:1 550:1 551:1 554:1 599:2 603:2 632:6 761:1 762:1 768:1 781:1 792:1 804:1 834:1 836:15 854:1 871:2 886:9 890:1 897:1 900:1 907:1 909:9 915:1 928:1 956:2 960:1 962:1 963:1 964:2 967:3 969:1 986:1 987:1 991:1 1005:1 1006:1 1035:1 1036:2 1039:1 1042:1 1046:1 1063:9 1066:2 1070:1 1073:1 1080:1 1112:1 1133:2 1134:2 1142:1 1154:1 1163:1 1172:2 1189:1 1190:1 1205:1 1208:13 1214:1 1225:9 1230:1 1238:1 1264:58 1268:4 1276:3 1285:1 1287:1 1295:1 1351:1 1356:3 1418:1 1465:1 1475:2 1494:1 1523:1 1545:2 1550:2 1555:1 1572:3 1575:1 1582:1 1604:9 1681:1 1713:5 1811:1 1841:1 1892:1 1947:1 1980:1 1984:2 2003:4 2016:6 2023:2 2124:1 2127:1 2183:4 2258:1 2264:1 2275:1 2350:4 2368:1 2373:2 2403:1 2474:1 #316199
-0.030491925414418419304496410404681 196:1 204:1 215:5 239:6 241:13 243:1 382:1 416:1 424:2 502:1 522:5 599:2 603:1 612:1 632:7 660:1 707:1 726:2 734:1 756:1 781:1 792:1 796:1 799:1 834:1 836:14 846:1 854:1 871:3 886:10 907:1 908:1 909:7 928:1 938:2 960:1 962:1 963:2 967:6 981:1 986:1 991:1 1006:1 1008:1 1014:1 1025:2 1034:1 1035:1 1036:3 1039:1 1042:1 1053:1 1063:9 1066:4 1070:1 1079:2 1080:1 1133:2 1134:4 1143:2 1144:1 1159:1 1163:1 1189:1 1208:11 1225:9 1230:1 1238:1 1264:53 1285:1 1292:4 1314:1 1465:1 1475:1 1485:1 1523:2 1572:3 1575:1 1582:1 1602:1 1604:9 1606:2 1639:1 1713:5 1795:2 1892:1 1980:1 2003:4 2016:6 2023:2 2057:1 2127:1 2159:1 2183:3 2207:1 2258:3 2275:2 2346:1 2350:3 2368:1 2403:1 2467:2 2474:1 #919682
1 1:2 5:1 6:2 55:1 59:1 60:1 61:1 67:2 69:1 73:1 81:1 181:1 215:4 236:1 239:2 241:14 243:1 375:1 378:1 382:1 388:1 416:1 417:1 421:1 499:1 502:1 522:6 532:1 599:2 603:4 612:1 632:7 665:1 707:1 722:1 727:2 742:1 756:1 761:1 762:1 792:1 796:1 803:1 804:1 834:1 836:4 871:2 875:1 886:12 890:1 897:1 900:1 909:8 928:1 942:1 960:1 962:1 963:2 986:1 991:1 994:1 997:1 1005:1 1014:1 1019:1 1035:1 1036:3 1039:1 1042:1 1046:1 1048:1 1055:1 1063:10 1066:3 1070:1 1073:1 1079:2 1080:1 1082:1 1097:1 1103:1 1112:1 1133:1 1154:1 1159:1 1172:2 1189:1 1190:1 1205:1 1208:15 1223:1 1225:10 1230:1 1238:1 1264:50 1268:1 1275:1 1276:1 1287:1 1314:1 1316:1 1356:1 1418:1 1465:1 1494:1 1523:2 1572:3 1575:1 1582:1 1604:11 1614:1 1662:1 1713:6 1795:1 1811:1 1841:1 1892:1 1934:1 1980:1 2003:3 2016:6 2023:1 2183:1 2264:1 2346:1 2350:3 2368:1 2377:1 2403:1 2466:1 2467:1 2474:1 #917991
-0.62283860438461069453097707082634 215:8 239:4 241:24 243:1 290:1 302:2 378:1 385:1 416:4 443:1 522:7 599:2 632:9 652:2 667:1 699:1 749:2 762:1 792:4 794:1 803:1 804:1 806:2 834:4 836:18 843:2 854:1 859:2 871:4 886:12 890:1 897:1 898:2 900:1 909:12 928:4 932:1 938:2 951:2 955:1 956:1 960:1 962:1 964:1 967:6 971:2 986:4 991:1 996:1 1005:1 1006:1 1007:1 1014:1 1035:4 1036:6 1042:4 1046:1 1048:2 1052:1 1053:2 1063:10 1066:6 1070:4 1073:1 1074:1 1093:2 1112:1 1118:2 1133:3 1134:2 1141:1 1143:2 1145:2 1149:1 1150:1 1154:1 1163:1 1172:3 1175:1 1186:1 1190:1 1205:1 1208:14 1225:10 1230:4 1254:1 1264:77 1268:1 1274:1 1276:1 1285:1 1287:1 1289:1 1314:1 1356:1 1368:1 1433:1 1465:4 1494:1 1523:1 1572:4 1575:4 1582:4 1604:10 1606:2 1685:1 1688:1 1713:7 1780:1 1811:1 1822:1 1841:1 1892:1 1980:4 2003:7 2016:8 2023:5 2054:1 2127:1 2181:1 2183:8 2258:4 2264:1 2265:1 2275:2 2341:2 2350:6 2403:4 #158017
-0.23919096617039378727120890744118 168:1 215:5 236:1 241:14 416:2 522:5 599:4 603:2 632:6 652:2 660:1 792:2 796:2 799:1 806:2 834:2 836:8 854:1 871:3 886:9 907:1 908:1 909:8 928:2 938:2 942:1 951:2 962:1 963:1 967:4 981:1 986:2 991:1 997:1 1006:1 1014:1 1034:1 1035:2 1036:3 1042:2 1048:2 1053:2 1063:7 1066:4 1070:2 1079:1 1082:1 1133:2 1143:4 1145:4 1163:1 1171:2 1172:2 1189:1 1208:11 1215:1 1225:7 1230:2 1264:47 1285:1 1418:1 1465:2 1475:1 1523:1 1572:3 1575:2 1582:2 1604:7 1606:4 1662:1 1713:5 1980:2 2003:4 2016:6 2023:2 2127:1 2181:2 2183:2 2258:2 2275:2 2350:4 2403:2 2466:1 2467:3 #157226
-0.064249991517125709661328869515273 168:1 183:1 215:7 233:1 237:1 239:6 241:27 290:1 328:1 367:1 379:1 416:2 480:1 522:13 528:1 545:1 561:1 569:1 599:6 603:2 612:2 632:14 660:2 665:2 701:1 722:1 756:1 761:3 790:2 792:2 794:4 796:1 799:2 803:3 824:1 834:2 836:10 850:1 871:4 886:22 907:2 908:2 909:18 928:2 932:1 938:2 957:1 967:4 980:1 981:2 986:2 1003:1 1006:1 1019:3 1025:2 1029:1 1030:1 1034:2 1035:2 1036:7 1039:1 1042:2 1048:3 1055:1 1063:18 1066:7 1070:2 1097:1 1099:3 1103:1 1116:1 1125:1 1133:1 1134:4 1139:3 1144:1 1163:3 1171:2 1172:4 1187:1 1200:1 1208:16 1225:18 1226:1 1227:1 1230:2 1238:1 1240:1 1241:1 1258:1 1264:79 1266:3 1271:1 1273:1 1274:1 1283:1 1285:3 1292:4 1335:3 1395:1 1425:2 1448:1 1465:2 1475:2 1502:1 1523:2 1572:5 1575:2 1582:2 1604:19 1713:13 1980:2 2003:6 2011:1 2016:13 2023:2 2183:2 2258:2 2275:1 2346:1 2350:7 2368:2 2403:2 2458:3 2467:2 2474:2 #155593
-0.14948483764903069959117942744342 3:1 69:1 73:1 75:1 81:1 168:2 183:2 215:4 236:1 241:12 243:1 382:1 388:1 417:1 425:2 502:1 522:7 545:1 552:1 561:1 570:1 599:8 603:1 612:2 632:8 665:1 707:1 727:2 742:1 756:1 761:1 796:3 803:1 850:2 871:1 886:11 909:7 942:1 960:1 963:2 994:1 997:1 1019:1 1029:2 1036:2 1039:1 1063:11 1066:4 1079:2 1080:1 1082:1 1144:2 1157:1 1159:1 1171:4 1172:1 1189:1 1208:8 1223:1 1225:11 1238:1 1258:1 1264:42 1274:1 1275:1 1314:1 1321:1 1418:1 1523:3 1572:2 1604:11 1614:1 1662:1 1713:7 1795:1 1892:1 1961:1 2003:4 2016:6 2346:1 2350:3 2368:2 2466:1 2467:5 2474:2 #918216
-0.26052098299607662212906689092051 1:2 2:1 3:1 4:1 5:1 6:2 41:1 75:1 204:1 215:4 236:1 238:1 241:11 243:1 367:1 375:1 379:1 382:1 417:1 425:2 502:1 522:6 552:1 570:1 599:3 603:4 612:1 632:8 652:1 660:1 701:1 707:1 726:2 727:2 734:1 742:1 756:1 796:1 799:1 806:1 836:8 846:1 854:1 871:2 886:13 908:1 909:7 938:2 942:1 951:1 957:1 960:1 962:1 963:2 967:4 980:1 981:1 991:1 994:1 997:1 1006:1 1008:1 1014:1 1036:2 1039:1 1048:2 1053:2 1063:10 1066:3 1070:1 1079:2 1080:1 1082:1 1116:1 1133:1 1143:4 1145:2 1157:1 1159:1 1163:1 1172:1 1189:1 1200:1 1208:14 1223:1 1225:10 1226:1 1227:1 1238:1 1239:1 1240:1 1264:54 1275:1 1285:1 1314:1 1321:1 1418:1 1485:1 1523:2 1572:2 1602:1 1604:10 1606:4 1662:1 1693:2 1713:6 1795:1 1840:1 1892:1 2003:3 2016:7 2023:2 2057:1 2159:1 2181:1 2183:2 2258:2 2259:1 2275:2 2346:1 2350:3 2368:1 2377:1 2466:1 2467:1 2474:1 #917302
-0.11480674126238990528925398848514 68:1 69:1 70:1 71:1 72:1 73:1 74:1 75:1 76:1 77:1 78:1 79:1 80:1 81:1 82:1 183:1 215:3 226:1 236:1 239:2 241:14 243:1 388:1 412:1 416:1 417:1 425:2 522:4 538:1 539:1 545:1 552:2 554:1 561:1 599:2 603:1 612:2 630:1 632:5 665:1 727:2 756:1 761:1 781:1 788:1 792:1 796:1 803:1 834:1 836:4 871:1 886:11 909:8 928:1 942:1 956:2 958:1 960:2 962:1 963:1 964:2 967:2 986:1 991:1 994:1 997:1 1019:1 1035:1 1036:3 1039:1 1042:1 1063:11 1066:4 1070:1 1079:1 1082:1 1099:1 1134:2 1157:1 1163:1 1172:2 1208:10 1223:2 1225:11 1230:1 1238:1 1258:1 1264:43 1285:1 1321:1 1418:1 1432:1 1465:1 1523:3 1572:2 1575:1 1582:1 1604:11 1609:1 1614:1 1662:1 1713:4 1845:1 1892:2 1937:1 1961:1 1980:1 1984:1 2003:2 2016:5 2183:2 2255:1 2308:1 2346:1 2350:2 2368:2 2369:1 2403:1 2414:1 2466:1 2467:1 2474:2 2480:1 #848815
-0.049421523812915105211551747288468 181:1 215:1 239:2 241:5 243:1 302:2 313:1 416:1 421:1 443:1 499:1 522:2 532:1 599:2 603:1 626:1 632:3 652:1 660:1 667:1 707:1 722:1 761:1 794:1 799:1 803:1 806:1 836:6 859:2 871:2 875:1 886:6 893:1 908:1 909:2 932:1 951:1 955:1 956:1 960:1 963:1 964:1 967:2 971:2 981:1 1007:1 1034:1 1036:3 1048:2 1052:1 1053:1 1055:1 1059:1 1063:3 1066:2 1079:1 1080:1 1093:2 1097:1 1103:1 1118:2 1134:2 1141:1 1172:1 1175:1 1208:7 1225:3 1264:31 1274:1 1312:1 1316:1 1351:1 1572:1 1579:1 1604:4 1713:2 1780:1 1892:1 2003:1 2016:1 2023:2 2054:1 2095:1 2183:5 2258:2 2341:1 #474518
-0.11386085810753843183817934914259 201:1 215:6 236:1 239:4 241:13 364:1 378:1 385:1 402:1 416:2 509:1 511:1 522:5 538:1 540:1 542:1 550:1 551:1 554:1 599:2 603:2 632:6 761:1 762:1 768:1 792:1 804:1 834:1 836:11 854:1 871:4 886:9 890:1 897:1 900:1 907:1 909:9 915:1 928:1 960:1 962:1 963:1 967:1 986:1 987:1 991:1 1005:1 1006:1 1035:1 1036:2 1039:1 1042:1 1046:1 1063:9 1066:2 1070:1 1073:1 1080:1 1095:1 1112:1 1133:2 1142:1 1154:1 1163:1 1170:2 1172:2 1189:1 1190:1 1205:1 1208:13 1214:1 1225:9 1230:1 1238:1 1264:52 1268:4 1276:3 1285:1 1287:1 1295:1 1351:1 1356:3 1418:1 1465:1 1475:2 1494:1 1523:1 1545:2 1550:2 1555:1 1572:3 1575:1 1582:1 1604:9 1681:1 1713:5 1811:1 1841:1 1892:1 1947:1 1980:1 2003:4 2016:6 2023:2 2124:1 2127:1 2183:2 2258:1 2264:1 2275:1 2350:4 2368:1 2403:1 2474:1 #838101
-0.050854938142757349917033593555971 215:5 239:9 241:12 243:2 382:2 416:1 502:2 522:6 599:1 612:1 632:8 707:2 756:1 781:1 792:1 794:1 803:1 834:1 836:19 871:3 886:9 909:7 928:1 938:3 960:2 963:1 964:2 967:10 986:1 1025:3 1035:1 1036:3 1039:1 1042:1 1063:9 1066:2 1070:1 1076:2 1079:2 1080:2 1082:1 1099:1 1133:2 1134:6 1139:1 1156:2 1159:2 1172:1 1186:1 1208:10 1225:9 1230:1 1238:1 1264:56 1292:4 1314:2 1335:1 1465:1 1523:1 1565:2 1572:3 1575:1 1582:1 1604:9 1713:6 1795:1 1851:2 1892:2 1980:1 2003:5 2016:6 2023:3 2183:5 2215:1 2258:3 2275:3 2346:1 2350:4 2368:1 2403:1 2458:1 2474:1 #613617
-0.015137024778212375408781298347094 168:2 183:2 215:16 233:2 236:1 237:2 241:47 243:3 367:1 379:1 382:3 389:1 392:1 393:1 400:1 414:1 416:4 420:1 457:1 480:2 499:1 502:3 522:23 545:2 555:1 561:1 599:11 603:2 612:2 617:1 623:1 629:1 632:27 652:5 654:1 660:1 701:1 707:3 748:1 756:1 781:2 792:4 794:4 796:3 799:1 803:3 806:5 814:1 834:4 836:20 850:2 854:1 871:8 875:1 886:41 907:1 908:1 909:29 928:4 932:1 938:5 942:1 951:5 957:1 960:3 962:1 963:4 967:10 980:1 981:1 986:4 991:1 997:1 1003:2 1006:1 1029:2 1030:2 1034:1 1035:4 1036:8 1039:1 1042:4 1048:9 1052:1 1053:5 1055:1 1059:1 1063:31 1066:9 1070:4 1078:1 1079:4 1080:3 1082:1 1097:1 1099:3 1103:1 1108:1 1116:1 1133:3 1139:3 1143:10 1144:4 1145:10 1159:3 1163:1 1171:4 1172:5 1189:1 1200:1 1205:1 1208:32 1225:31 1226:1 1227:1 1230:4 1238:1 1239:1 1240:1 1258:1 1264:154 1271:2 1274:1 1283:2 1285:1 1314:3 1316:1 1335:3 1376:1 1418:1 1425:2 1448:2 1465:4 1475:1 1502:1 1523:3 1572:10 1575:4 1582:4 1604:32 1606:10 1662:1 1713:23 1795:3 1841:2 1892:3 1924:1 1961:2 1980:4 2003:15 2016:23 2023:5 2089:1 2181:5 2183:5 2258:5 2259:1 2275:4 2346:1 2350:12 2368:2 2381:1 2383:1 2403:4 2458:3 2465:1 2466:1 2467:5 2474:2 #743507
-0.017362121739879464443756518221562 168:2 181:1 183:2 215:10 233:3 236:2 237:3 239:5 241:25 328:1 378:1 384:1 389:1 392:1 393:2 396:1 400:1 405:1 412:4 414:1 417:3 418:1 420:1 421:1 422:1 424:2 425:4 457:1 480:3 499:3 522:20 528:1 532:1 547:3 552:4 555:2 599:10 603:3 613:1 617:1 623:2 629:1 632:21 652:1 654:2 660:1 679:1 692:1 722:1 727:5 748:1 762:1 796:5 799:1 804:1 806:1 814:1 824:1 836:13 850:2 871:1 875:3 886:32 890:1 897:1 900:1 907:1 908:1 909:20 938:2 942:2 951:1 963:3 967:4 981:1 994:3 995:1 997:2 1003:3 1005:1 1025:1 1029:2 1030:3 1034:1 1036:1 1046:1 1048:8 1053:1 1055:4 1063:20 1066:2 1073:1 1078:1 1079:3 1082:2 1094:1 1097:4 1103:4 1108:1 1112:1 1133:2 1134:2 1143:2 1144:2 1145:2 1154:1 1157:4 1171:4 1172:2 1187:1 1189:3 1190:1 1205:2 1208:16 1222:1 1223:5 1225:20 1241:1 1264:109 1268:1 1271:3 1273:1 1274:1 1276:1 1283:3 1287:1 1292:2 1316:3 1321:3 1356:1 1376:1 1385:1 1418:2 1425:3 1448:3 1475:1 1499:1 1572:2 1576:1 1604:24 1606:2 1639:1 1656:3 1662:2 1713:20 1774:1 1795:1 1811:1 1841:3 1924:1 2003:10 2013:1 2016:20 2023:3 2089:1 2179:1 2181:1 2183:3 2207:1 2258:2 2264:1 2275:2 2350:10 2360:1 2466:2 2467:8 #389242
